digraph Tree {
node [shape=box, style="filled, rounded", color="black", fontname=helvetica] ;
edge [fontname=helvetica] ;
0 [label="version <= 20.5\ngini = 0.359\nsamples = 222\nvalue = [6, 20, 4, 5, 11, 176]\nclass = 5", fillcolor="#eb66b3"] ;
1 [label="jitter_rx_3rd <= 22.75\ngini = 0.348\nsamples = 220\nvalue = [6, 20, 4, 3, 11, 176]\nclass = 5", fillcolor="#eb65b3"] ;
0 -> 1 [labeldistance=2.5, labelangle=45, headlabel="True"] ;
2 [label="jitter_rx_std <= 0.063\ngini = 0.332\nsamples = 217\nvalue = [6, 18, 4, 3, 10, 176]\nclass = 5", fillcolor="#ea62b1"] ;
1 -> 2 ;
3 [label="version <= 11.0\ngini = 0.375\nsamples = 4\nvalue = [0, 3, 0, 0, 0, 1]\nclass = 1", fillcolor="#beee7b"] ;
2 -> 3 ;
4 [label="gini = 0.0\nsamples = 3\nvalue = [0, 3, 0, 0, 0, 0]\nclass = 1", fillcolor="#9de539"] ;
3 -> 4 ;
5 [label="gini = 0.0\nsamples = 1\nvalue = [0, 0, 0, 0, 0, 1]\nclass = 5", fillcolor="#e5399d"] ;
3 -> 5 ;
6 [label="latency_1st <= 87.5\ngini = 0.316\nsamples = 213\nvalue = [6, 15, 4, 3, 10, 175]\nclass = 5", fillcolor="#ea5fb0"] ;
2 -> 6 ;
7 [label="duration <= 2209.0\ngini = 0.194\nsamples = 115\nvalue = [6, 2, 1, 1, 2, 103]\nclass = 5", fillcolor="#e84fa8"] ;
6 -> 7 ;
8 [label="latency_std <= 0.725\ngini = 0.152\nsamples = 112\nvalue = [5, 2, 1, 1, 0, 103]\nclass = 5", fillcolor="#e74aa5"] ;
7 -> 8 ;
9 [label="latency_std <= 0.349\ngini = 0.461\nsamples = 16\nvalue = [4, 1, 0, 0, 0, 11]\nclass = 5", fillcolor="#f08cc6"] ;
8 -> 9 ;
10 [label="version <= 5.5\ngini = 0.272\nsamples = 13\nvalue = [1, 1, 0, 0, 0, 11]\nclass = 5", fillcolor="#e95aad"] ;
9 -> 10 ;
11 [label="latency_median <= 0.5\ngini = 0.625\nsamples = 4\nvalue = [1, 1, 0, 0, 0, 2]\nclass = 5", fillcolor="#f6bdde"] ;
10 -> 11 ;
12 [label="jitter_rx_3rd <= 12.75\ngini = 0.5\nsamples = 2\nvalue = [1, 1, 0, 0, 0, 0]\nclass = 0", fillcolor="#ffffff"] ;
11 -> 12 ;
13 [label="gini = 0.0\nsamples = 1\nvalue = [0, 1, 0, 0, 0, 0]\nclass = 1", fillcolor="#9de539"] ;
12 -> 13 ;
14 [label="gini = 0.0\nsamples = 1\nvalue = [1, 0, 0, 0, 0, 0]\nclass = 0", fillcolor="#e58139"] ;
12 -> 14 ;
15 [label="gini = 0.0\nsamples = 2\nvalue = [0, 0, 0, 0, 0, 2]\nclass = 5", fillcolor="#e5399d"] ;
11 -> 15 ;
16 [label="gini = 0.0\nsamples = 9\nvalue = [0, 0, 0, 0, 0, 9]\nclass = 5", fillcolor="#e5399d"] ;
10 -> 16 ;
17 [label="gini = 0.0\nsamples = 3\nvalue = [3, 0, 0, 0, 0, 0]\nclass = 0", fillcolor="#e58139"] ;
9 -> 17 ;
18 [label="jitter_rx_avg <= 13.621\ngini = 0.081\nsamples = 96\nvalue = [1, 1, 1, 1, 0, 92]\nclass = 5", fillcolor="#e641a1"] ;
8 -> 18 ;
19 [label="jitter_rx_std <= 3.504\ngini = 0.026\nsamples = 75\nvalue = [1, 0, 0, 0, 0, 74]\nclass = 5", fillcolor="#e53c9e"] ;
18 -> 19 ;
20 [label="gini = 0.0\nsamples = 66\nvalue = [0, 0, 0, 0, 0, 66]\nclass = 5", fillcolor="#e5399d"] ;
19 -> 20 ;
21 [label="duration <= 40.0\ngini = 0.198\nsamples = 9\nvalue = [1, 0, 0, 0, 0, 8]\nclass = 5", fillcolor="#e852a9"] ;
19 -> 21 ;
22 [label="gini = 0.0\nsamples = 8\nvalue = [0, 0, 0, 0, 0, 8]\nclass = 5", fillcolor="#e5399d"] ;
21 -> 22 ;
23 [label="gini = 0.0\nsamples = 1\nvalue = [1, 0, 0, 0, 0, 0]\nclass = 0", fillcolor="#e58139"] ;
21 -> 23 ;
24 [label="jitter_rx_avg <= 13.75\ngini = 0.259\nsamples = 21\nvalue = [0, 1, 1, 1, 0, 18]\nclass = 5", fillcolor="#e957ac"] ;
18 -> 24 ;
25 [label="gini = 0.0\nsamples = 1\nvalue = [0, 0, 1, 0, 0, 0]\nclass = 2", fillcolor="#39e581"] ;
24 -> 25 ;
26 [label="duration <= 30.5\ngini = 0.185\nsamples = 20\nvalue = [0, 1, 0, 1, 0, 18]\nclass = 5", fillcolor="#e84ea7"] ;
24 -> 26 ;
27 [label="gini = 0.0\nsamples = 1\nvalue = [0, 1, 0, 0, 0, 0]\nclass = 1", fillcolor="#9de539"] ;
26 -> 27 ;
28 [label="latency_1st <= 57.5\ngini = 0.1\nsamples = 19\nvalue = [0, 0, 0, 1, 0, 18]\nclass = 5", fillcolor="#e644a2"] ;
26 -> 28 ;
29 [label="gini = 0.0\nsamples = 15\nvalue = [0, 0, 0, 0, 0, 15]\nclass = 5", fillcolor="#e5399d"] ;
28 -> 29 ;
30 [label="latency_3rd <= 65.0\ngini = 0.375\nsamples = 4\nvalue = [0, 0, 0, 1, 0, 3]\nclass = 5", fillcolor="#ee7bbe"] ;
28 -> 30 ;
31 [label="gini = 0.0\nsamples = 1\nvalue = [0, 0, 0, 1, 0, 0]\nclass = 3", fillcolor="#399de5"] ;
30 -> 31 ;
32 [label="gini = 0.0\nsamples = 3\nvalue = [0, 0, 0, 0, 0, 3]\nclass = 5", fillcolor="#e5399d"] ;
30 -> 32 ;
33 [label="address <= 1.5\ngini = 0.444\nsamples = 3\nvalue = [1, 0, 0, 0, 2, 0]\nclass = 4", fillcolor="#c09cf2"] ;
7 -> 33 ;
34 [label="gini = 0.0\nsamples = 1\nvalue = [1, 0, 0, 0, 0, 0]\nclass = 0", fillcolor="#e58139"] ;
33 -> 34 ;
35 [label="gini = 0.0\nsamples = 2\nvalue = [0, 0, 0, 0, 2, 0]\nclass = 4", fillcolor="#8139e5"] ;
33 -> 35 ;
36 [label="latency_avg <= 97.45\ngini = 0.435\nsamples = 98\nvalue = [0, 13, 3, 2, 8, 72]\nclass = 5", fillcolor="#ed76bb"] ;
6 -> 36 ;
37 [label="duration <= 569.0\ngini = 0.593\nsamples = 9\nvalue = [0, 5, 0, 0, 2, 2]\nclass = 1", fillcolor="#d5f4aa"] ;
36 -> 37 ;
38 [label="gini = 0.0\nsamples = 3\nvalue = [0, 3, 0, 0, 0, 0]\nclass = 1", fillcolor="#9de539"] ;
37 -> 38 ;
39 [label="latency_3rd <= 94.5\ngini = 0.667\nsamples = 6\nvalue = [0, 2, 0, 0, 2, 2]\nclass = 1", fillcolor="#ffffff"] ;
37 -> 39 ;
40 [label="gini = 0.0\nsamples = 2\nvalue = [0, 2, 0, 0, 0, 0]\nclass = 1", fillcolor="#9de539"] ;
39 -> 40 ;
41 [label="jitter_rx_std <= 0.827\ngini = 0.5\nsamples = 4\nvalue = [0, 0, 0, 0, 2, 2]\nclass = 4", fillcolor="#ffffff"] ;
39 -> 41 ;
42 [label="gini = 0.0\nsamples = 2\nvalue = [0, 0, 0, 0, 2, 0]\nclass = 4", fillcolor="#8139e5"] ;
41 -> 42 ;
43 [label="gini = 0.0\nsamples = 2\nvalue = [0, 0, 0, 0, 0, 2]\nclass = 5", fillcolor="#e5399d"] ;
41 -> 43 ;
44 [label="latency_std <= 60.731\ngini = 0.367\nsamples = 89\nvalue = [0, 8, 3, 2, 6, 70]\nclass = 5", fillcolor="#eb67b4"] ;
36 -> 44 ;
45 [label="duration <= 375.0\ngini = 0.332\nsamples = 84\nvalue = [0, 8, 3, 2, 3, 68]\nclass = 5", fillcolor="#ea63b2"] ;
44 -> 45 ;
46 [label="duration <= 297.0\ngini = 0.465\nsamples = 44\nvalue = [0, 8, 3, 1, 1, 31]\nclass = 5", fillcolor="#ee80c0"] ;
45 -> 46 ;
47 [label="packet_loss_rx_3rd <= 7.5\ngini = 0.19\nsamples = 29\nvalue = [0, 2, 0, 0, 1, 26]\nclass = 5", fillcolor="#e84fa8"] ;
46 -> 47 ;
48 [label="jitter_tx_std <= 7.484\ngini = 0.133\nsamples = 28\nvalue = [0, 2, 0, 0, 0, 26]\nclass = 5", fillcolor="#e748a5"] ;
47 -> 48 ;
49 [label="jitter_rx_std <= 0.729\ngini = 0.071\nsamples = 27\nvalue = [0, 1, 0, 0, 0, 26]\nclass = 5", fillcolor="#e641a1"] ;
48 -> 49 ;
50 [label="latency_avg <= 178.149\ngini = 0.375\nsamples = 4\nvalue = [0, 1, 0, 0, 0, 3]\nclass = 5", fillcolor="#ee7bbe"] ;
49 -> 50 ;
51 [label="gini = 0.0\nsamples = 3\nvalue = [0, 0, 0, 0, 0, 3]\nclass = 5", fillcolor="#e5399d"] ;
50 -> 51 ;
52 [label="gini = 0.0\nsamples = 1\nvalue = [0, 1, 0, 0, 0, 0]\nclass = 1", fillcolor="#9de539"] ;
50 -> 52 ;
53 [label="gini = 0.0\nsamples = 23\nvalue = [0, 0, 0, 0, 0, 23]\nclass = 5", fillcolor="#e5399d"] ;
49 -> 53 ;
54 [label="gini = 0.0\nsamples = 1\nvalue = [0, 1, 0, 0, 0, 0]\nclass = 1", fillcolor="#9de539"] ;
48 -> 54 ;
55 [label="gini = 0.0\nsamples = 1\nvalue = [0, 0, 0, 0, 1, 0]\nclass = 4", fillcolor="#8139e5"] ;
47 -> 55 ;
56 [label="packet_loss_rx_3rd <= 1.5\ngini = 0.684\nsamples = 15\nvalue = [0, 6, 3, 1, 0, 5]\nclass = 1", fillcolor="#f5fceb"] ;
46 -> 56 ;
57 [label="jitter_rx_std <= 1.713\ngini = 0.519\nsamples = 9\nvalue = [0, 6, 1, 1, 0, 1]\nclass = 1", fillcolor="#c2ef83"] ;
56 -> 57 ;
58 [label="gini = 0.0\nsamples = 6\nvalue = [0, 6, 0, 0, 0, 0]\nclass = 1", fillcolor="#9de539"] ;
57 -> 58 ;
59 [label="jitter_tx_avg <= 9.539\ngini = 0.667\nsamples = 3\nvalue = [0, 0, 1, 1, 0, 1]\nclass = 2", fillcolor="#ffffff"] ;
57 -> 59 ;
60 [label="gini = 0.0\nsamples = 1\nvalue = [0, 0, 0, 1, 0, 0]\nclass = 3", fillcolor="#399de5"] ;
59 -> 60 ;
61 [label="jitter_rx_3rd <= 17.5\ngini = 0.5\nsamples = 2\nvalue = [0, 0, 1, 0, 0, 1]\nclass = 2", fillcolor="#ffffff"] ;
59 -> 61 ;
62 [label="gini = 0.0\nsamples = 1\nvalue = [0, 0, 0, 0, 0, 1]\nclass = 5", fillcolor="#e5399d"] ;
61 -> 62 ;
63 [label="gini = 0.0\nsamples = 1\nvalue = [0, 0, 1, 0, 0, 0]\nclass = 2", fillcolor="#39e581"] ;
61 -> 63 ;
64 [label="packet_loss_rx_std <= 5.678\ngini = 0.444\nsamples = 6\nvalue = [0, 0, 2, 0, 0, 4]\nclass = 5", fillcolor="#f29cce"] ;
56 -> 64 ;
65 [label="gini = 0.0\nsamples = 4\nvalue = [0, 0, 0, 0, 0, 4]\nclass = 5", fillcolor="#e5399d"] ;
64 -> 65 ;
66 [label="gini = 0.0\nsamples = 2\nvalue = [0, 0, 2, 0, 0, 0]\nclass = 2", fillcolor="#39e581"] ;
64 -> 66 ;
67 [label="packet_loss_rx_avg <= 0.142\ngini = 0.141\nsamples = 40\nvalue = [0, 0, 0, 1, 2, 37]\nclass = 5", fillcolor="#e749a5"] ;
45 -> 67 ;
68 [label="latency_median <= 220.5\ngini = 0.375\nsamples = 8\nvalue = [0, 0, 0, 0, 2, 6]\nclass = 5", fillcolor="#ee7bbe"] ;
67 -> 68 ;
69 [label="gini = 0.0\nsamples = 5\nvalue = [0, 0, 0, 0, 0, 5]\nclass = 5", fillcolor="#e5399d"] ;
68 -> 69 ;
70 [label="jitter_tx_avg <= 16.299\ngini = 0.444\nsamples = 3\nvalue = [0, 0, 0, 0, 2, 1]\nclass = 4", fillcolor="#c09cf2"] ;
68 -> 70 ;
71 [label="gini = 0.0\nsamples = 2\nvalue = [0, 0, 0, 0, 2, 0]\nclass = 4", fillcolor="#8139e5"] ;
70 -> 71 ;
72 [label="gini = 0.0\nsamples = 1\nvalue = [0, 0, 0, 0, 0, 1]\nclass = 5", fillcolor="#e5399d"] ;
70 -> 72 ;
73 [label="jitter_tx_avg <= 13.015\ngini = 0.061\nsamples = 32\nvalue = [0, 0, 0, 1, 0, 31]\nclass = 5", fillcolor="#e63fa0"] ;
67 -> 73 ;
74 [label="jitter_tx_1st <= 12.0\ngini = 0.245\nsamples = 7\nvalue = [0, 0, 0, 1, 0, 6]\nclass = 5", fillcolor="#e95aad"] ;
73 -> 74 ;
75 [label="gini = 0.0\nsamples = 6\nvalue = [0, 0, 0, 0, 0, 6]\nclass = 5", fillcolor="#e5399d"] ;
74 -> 75 ;
76 [label="gini = 0.0\nsamples = 1\nvalue = [0, 0, 0, 1, 0, 0]\nclass = 3", fillcolor="#399de5"] ;
74 -> 76 ;
77 [label="gini = 0.0\nsamples = 25\nvalue = [0, 0, 0, 0, 0, 25]\nclass = 5", fillcolor="#e5399d"] ;
73 -> 77 ;
78 [label="jitter_rx_median <= 14.5\ngini = 0.48\nsamples = 5\nvalue = [0, 0, 0, 0, 3, 2]\nclass = 4", fillcolor="#d5bdf6"] ;
44 -> 78 ;
79 [label="gini = 0.0\nsamples = 3\nvalue = [0, 0, 0, 0, 3, 0]\nclass = 4", fillcolor="#8139e5"] ;
78 -> 79 ;
80 [label="gini = 0.0\nsamples = 2\nvalue = [0, 0, 0, 0, 0, 2]\nclass = 5", fillcolor="#e5399d"] ;
78 -> 80 ;
81 [label="latency_median <= 215.0\ngini = 0.444\nsamples = 3\nvalue = [0, 2, 0, 0, 1, 0]\nclass = 1", fillcolor="#cef29c"] ;
1 -> 81 ;
82 [label="gini = 0.0\nsamples = 2\nvalue = [0, 2, 0, 0, 0, 0]\nclass = 1", fillcolor="#9de539"] ;
81 -> 82 ;
83 [label="gini = 0.0\nsamples = 1\nvalue = [0, 0, 0, 0, 1, 0]\nclass = 4", fillcolor="#8139e5"] ;
81 -> 83 ;
84 [label="gini = 0.0\nsamples = 2\nvalue = [0, 0, 0, 2, 0, 0]\nclass = 3", fillcolor="#399de5"] ;
0 -> 84 [labeldistance=2.5, labelangle=-45, headlabel="False"] ;
}